svm_type nu_svr
kernel_type rbf
gamma 0.047619
nr_class 2
total_sv 8
rho -0.453617
SV
-5.059497603514956 1:0.5 2:0.652778 3:0.5625 4:1 5:1 6:1 8:0.5 9:0.652778 10:0.458333 11:1 12:1 13:1 15:0.5 16:0.472222 17:0.5 18:1 19:1 20:1 
9.951567338743189 1:0.6 2:0.666667 3:0.458333 4:1 5:0.741176 6:0.854902 8:0.404927 9:0.666667 10:0.541667 11:0.917647 12:0.8 13:0.996078 15:0.5 16:0.472222 17:0.5 18:0.992157 19:0.25098 20:0.25098 
-0.07032156339663211 1:0.55 2:0.652778 3:0.513889 4:1 5:0.972549 6:0.847059 8:0.45 9:0.652778 10:0.486111 11:1 12:0.733333 13:0.733333 15:0.25 16:0.472222 17:0.5 18:1 19:0.996078 20:0.835294 
3.151187168835728 1:0.25 2:0.652778 3:0.458333 4:1 5:0.690196 6:0.976471 8:0.2 9:0.652778 10:0.555556 11:0.027451 13:1 15:0.1 16:0.472222 17:0.5 18:1 19:0.996078 20:0.835294 
-4.895401509323098 1:0.6 2:0.680556 3:0.458333 4:0.572549 5:0.054902 6:0.992157 7:0.0555556 8:0.4 9:0.652778 10:0.541667 11:0.615686 12:0.32549 14:0.0555556 15:0.25 16:0.472222 17:0.5 18:1 20:0.415686 
21.43856964858491 1:0.4 2:0.666667 3:0.513889 4:0.984314 5:0.537255 6:0.921569 8:0.2 9:0.666667 10:0.458333 11:1 12:0.678431 13:0.631373 15:0.15 16:0.472222 17:0.5 18:0.596078 19:0.992157 20:1 
-3.735611547560882 1:0.45 2:0.666667 3:0.513889 4:0.964706 5:0.639216 6:0.729412 7:0.0555556 8:0.4 9:0.583333 10:0.4375 11:0.466667 13:1 14:0.0555556 15:0.375 16:0.527778 17:0.5 18:1 19:0.560784 20:0.905882 21:0.0833333 
-20.78049193236799 1:0.55 2:0.652778 3:0.555556 4:1 5:0.768627 6:0.941176 8:0.45 9:0.652778 10:0.458333 11:0.921569 12:0.945098 13:1 15:0.25 16:0.472222 17:0.5 18:1 19:0.996078 20:0.835294 
